digraph Tree {
node [shape=box, fontname="helvetica"] ;
edge [fontname="helvetica"] ;
0 [label="X[12] <= 4.5\ngini = 0.649\nsamples = 299\nvalue = [160, 56, 35, 35, 13]"] ;
1 [label="X[11] <= 0.5\ngini = 0.379\nsamples = 164\nvalue = [127, 22, 7, 6, 2]"] ;
0 -> 1 [labeldistance=2.5, labelangle=45, headlabel="True"] ;
2 [label="X[3] <= 157.0\ngini = 0.204\nsamples = 115\nvalue = [102, 11, 2, 0, 0]"] ;
1 -> 2 ;
3 [label="X[7] <= 83.5\ngini = 0.153\nsamples = 109\nvalue = [100, 8, 1, 0, 0]"] ;
2 -> 3 ;
4 [label="gini = 0.0\nsamples = 1\nvalue = [0, 0, 1, 0, 0]"] ;
3 -> 4 ;
5 [label="X[9] <= 3.55\ngini = 0.137\nsamples = 108\nvalue = [100, 8, 0, 0, 0]"] ;
3 -> 5 ;
6 [label="X[0] <= 59.5\ngini = 0.122\nsamples = 107\nvalue = [100, 7, 0, 0, 0]"] ;
5 -> 6 ;
7 [label="X[9] <= 1.7\ngini = 0.045\nsamples = 87\nvalue = [85, 2, 0, 0, 0]"] ;
6 -> 7 ;
8 [label="X[3] <= 109.0\ngini = 0.024\nsamples = 82\nvalue = [81, 1, 0, 0, 0]"] ;
7 -> 8 ;
9 [label="X[1] <= 0.5\ngini = 0.219\nsamples = 8\nvalue = [7, 1, 0, 0, 0]"] ;
8 -> 9 ;
10 [label="gini = 0.0\nsamples = 6\nvalue = [6, 0, 0, 0, 0]"] ;
9 -> 10 ;
11 [label="X[8] <= 0.5\ngini = 0.5\nsamples = 2\nvalue = [1, 1, 0, 0, 0]"] ;
9 -> 11 ;
12 [label="gini = 0.0\nsamples = 1\nvalue = [0, 1, 0, 0, 0]"] ;
11 -> 12 ;
13 [label="gini = 0.0\nsamples = 1\nvalue = [1, 0, 0, 0, 0]"] ;
11 -> 13 ;
14 [label="gini = 0.0\nsamples = 74\nvalue = [74, 0, 0, 0, 0]"] ;
8 -> 14 ;
15 [label="X[9] <= 1.9\ngini = 0.32\nsamples = 5\nvalue = [4, 1, 0, 0, 0]"] ;
7 -> 15 ;
16 [label="gini = 0.0\nsamples = 1\nvalue = [0, 1, 0, 0, 0]"] ;
15 -> 16 ;
17 [label="gini = 0.0\nsamples = 4\nvalue = [4, 0, 0, 0, 0]"] ;
15 -> 17 ;
18 [label="X[7] <= 152.5\ngini = 0.375\nsamples = 20\nvalue = [15, 5, 0, 0, 0]"] ;
6 -> 18 ;
19 [label="X[8] <= 0.5\ngini = 0.153\nsamples = 12\nvalue = [11, 1, 0, 0, 0]"] ;
18 -> 19 ;
20 [label="gini = 0.0\nsamples = 9\nvalue = [9, 0, 0, 0, 0]"] ;
19 -> 20 ;
21 [label="X[4] <= 204.0\ngini = 0.444\nsamples = 3\nvalue = [2, 1, 0, 0, 0]"] ;
19 -> 21 ;
22 [label="gini = 0.0\nsamples = 1\nvalue = [0, 1, 0, 0, 0]"] ;
21 -> 22 ;
23 [label="gini = 0.0\nsamples = 2\nvalue = [2, 0, 0, 0, 0]"] ;
21 -> 23 ;
24 [label="X[7] <= 156.0\ngini = 0.5\nsamples = 8\nvalue = [4, 4, 0, 0, 0]"] ;
18 -> 24 ;
25 [label="gini = 0.0\nsamples = 2\nvalue = [0, 2, 0, 0, 0]"] ;
24 -> 25 ;
26 [label="X[4] <= 291.0\ngini = 0.444\nsamples = 6\nvalue = [4, 2, 0, 0, 0]"] ;
24 -> 26 ;
27 [label="gini = 0.0\nsamples = 3\nvalue = [3, 0, 0, 0, 0]"] ;
26 -> 27 ;
28 [label="X[4] <= 364.5\ngini = 0.444\nsamples = 3\nvalue = [1, 2, 0, 0, 0]"] ;
26 -> 28 ;
29 [label="gini = 0.0\nsamples = 2\nvalue = [0, 2, 0, 0, 0]"] ;
28 -> 29 ;
30 [label="gini = 0.0\nsamples = 1\nvalue = [1, 0, 0, 0, 0]"] ;
28 -> 30 ;
31 [label="gini = 0.0\nsamples = 1\nvalue = [0, 1, 0, 0, 0]"] ;
5 -> 31 ;
32 [label="X[4] <= 315.0\ngini = 0.611\nsamples = 6\nvalue = [2, 3, 1, 0, 0]"] ;
2 -> 32 ;
33 [label="gini = 0.0\nsamples = 3\nvalue = [0, 3, 0, 0, 0]"] ;
32 -> 33 ;
34 [label="X[7] <= 134.0\ngini = 0.444\nsamples = 3\nvalue = [2, 0, 1, 0, 0]"] ;
32 -> 34 ;
35 [label="gini = 0.0\nsamples = 1\nvalue = [0, 0, 1, 0, 0]"] ;
34 -> 35 ;
36 [label="gini = 0.0\nsamples = 2\nvalue = [2, 0, 0, 0, 0]"] ;
34 -> 36 ;
37 [label="X[2] <= 3.5\ngini = 0.662\nsamples = 49\nvalue = [25, 11, 5, 6, 2]"] ;
1 -> 37 ;
38 [label="X[9] <= 2.25\ngini = 0.392\nsamples = 29\nvalue = [22, 5, 1, 1, 0]"] ;
37 -> 38 ;
39 [label="X[4] <= 172.0\ngini = 0.349\nsamples = 28\nvalue = [22, 5, 0, 1, 0]"] ;
38 -> 39 ;
40 [label="gini = 0.0\nsamples = 1\nvalue = [0, 1, 0, 0, 0]"] ;
39 -> 40 ;
41 [label="X[2] <= 2.5\ngini = 0.313\nsamples = 27\nvalue = [22, 4, 0, 1, 0]"] ;
39 -> 41 ;
42 [label="X[4] <= 310.5\ngini = 0.48\nsamples = 15\nvalue = [10, 4, 0, 1, 0]"] ;
41 -> 42 ;
43 [label="X[7] <= 160.5\ngini = 0.408\nsamples = 14\nvalue = [10, 4, 0, 0, 0]"] ;
42 -> 43 ;
44 [label="gini = 0.0\nsamples = 6\nvalue = [6, 0, 0, 0, 0]"] ;
43 -> 44 ;
45 [label="X[0] <= 49.5\ngini = 0.5\nsamples = 8\nvalue = [4, 4, 0, 0, 0]"] ;
43 -> 45 ;
46 [label="gini = 0.0\nsamples = 2\nvalue = [2, 0, 0, 0, 0]"] ;
45 -> 46 ;
47 [label="X[0] <= 61.0\ngini = 0.444\nsamples = 6\nvalue = [2, 4, 0, 0, 0]"] ;
45 -> 47 ;
48 [label="gini = 0.0\nsamples = 3\nvalue = [0, 3, 0, 0, 0]"] ;
47 -> 48 ;
49 [label="X[6] <= 1.0\ngini = 0.444\nsamples = 3\nvalue = [2, 1, 0, 0, 0]"] ;
47 -> 49 ;
50 [label="gini = 0.0\nsamples = 2\nvalue = [2, 0, 0, 0, 0]"] ;
49 -> 50 ;
51 [label="gini = 0.0\nsamples = 1\nvalue = [0, 1, 0, 0, 0]"] ;
49 -> 51 ;
52 [label="gini = 0.0\nsamples = 1\nvalue = [0, 0, 0, 1, 0]"] ;
42 -> 52 ;
53 [label="gini = 0.0\nsamples = 12\nvalue = [12, 0, 0, 0, 0]"] ;
41 -> 53 ;
54 [label="gini = 0.0\nsamples = 1\nvalue = [0, 0, 1, 0, 0]"] ;
38 -> 54 ;
55 [label="X[10] <= 2.5\ngini = 0.775\nsamples = 20\nvalue = [3, 6, 4, 5, 2]"] ;
37 -> 55 ;
56 [label="X[1] <= 0.5\ngini = 0.772\nsamples = 18\nvalue = [3, 6, 4, 3, 2]"] ;
55 -> 56 ;
57 [label="X[7] <= 114.0\ngini = 0.56\nsamples = 5\nvalue = [3, 1, 1, 0, 0]"] ;
56 -> 57 ;
58 [label="gini = 0.0\nsamples = 1\nvalue = [0, 0, 1, 0, 0]"] ;
57 -> 58 ;
59 [label="X[7] <= 164.0\ngini = 0.375\nsamples = 4\nvalue = [3, 1, 0, 0, 0]"] ;
57 -> 59 ;
60 [label="gini = 0.0\nsamples = 3\nvalue = [3, 0, 0, 0, 0]"] ;
59 -> 60 ;
61 [label="gini = 0.0\nsamples = 1\nvalue = [0, 1, 0, 0, 0]"] ;
59 -> 61 ;
62 [label="X[8] <= 0.5\ngini = 0.722\nsamples = 13\nvalue = [0, 5, 3, 3, 2]"] ;
56 -> 62 ;
63 [label="X[7] <= 156.5\ngini = 0.375\nsamples = 4\nvalue = [0, 3, 1, 0, 0]"] ;
62 -> 63 ;
64 [label="X[9] <= 1.2\ngini = 0.5\nsamples = 2\nvalue = [0, 1, 1, 0, 0]"] ;
63 -> 64 ;
65 [label="gini = 0.0\nsamples = 1\nvalue = [0, 0, 1, 0, 0]"] ;
64 -> 65 ;
66 [label="gini = 0.0\nsamples = 1\nvalue = [0, 1, 0, 0, 0]"] ;
64 -> 66 ;
67 [label="gini = 0.0\nsamples = 2\nvalue = [0, 2, 0, 0, 0]"] ;
63 -> 67 ;
68 [label="X[0] <= 58.5\ngini = 0.741\nsamples = 9\nvalue = [0, 2, 2, 3, 2]"] ;
62 -> 68 ;
69 [label="X[7] <= 117.0\ngini = 0.5\nsamples = 4\nvalue = [0, 2, 0, 2, 0]"] ;
68 -> 69 ;
70 [label="gini = 0.0\nsamples = 2\nvalue = [0, 0, 0, 2, 0]"] ;
69 -> 70 ;
71 [label="gini = 0.0\nsamples = 2\nvalue = [0, 2, 0, 0, 0]"] ;
69 -> 71 ;
72 [label="X[3] <= 106.0\ngini = 0.64\nsamples = 5\nvalue = [0, 0, 2, 1, 2]"] ;
68 -> 72 ;
73 [label="gini = 0.0\nsamples = 1\nvalue = [0, 0, 0, 1, 0]"] ;
72 -> 73 ;
74 [label="X[7] <= 116.5\ngini = 0.5\nsamples = 4\nvalue = [0, 0, 2, 0, 2]"] ;
72 -> 74 ;
75 [label="gini = 0.0\nsamples = 1\nvalue = [0, 0, 1, 0, 0]"] ;
74 -> 75 ;
76 [label="X[3] <= 118.5\ngini = 0.444\nsamples = 3\nvalue = [0, 0, 1, 0, 2]"] ;
74 -> 76 ;
77 [label="gini = 0.0\nsamples = 1\nvalue = [0, 0, 1, 0, 0]"] ;
76 -> 77 ;
78 [label="gini = 0.0\nsamples = 2\nvalue = [0, 0, 0, 0, 2]"] ;
76 -> 78 ;
79 [label="gini = 0.0\nsamples = 2\nvalue = [0, 0, 0, 2, 0]"] ;
55 -> 79 ;
80 [label="X[11] <= 0.5\ngini = 0.781\nsamples = 135\nvalue = [33, 34, 28, 29, 11]"] ;
0 -> 80 [labeldistance=2.5, labelangle=-45, headlabel="False"] ;
81 [label="X[8] <= 0.5\ngini = 0.697\nsamples = 61\nvalue = [27, 17, 6, 8, 3]"] ;
80 -> 81 ;
82 [label="X[0] <= 51.0\ngini = 0.492\nsamples = 33\nvalue = [22, 8, 0, 2, 1]"] ;
81 -> 82 ;
83 [label="X[5] <= 0.5\ngini = 0.675\nsamples = 13\nvalue = [5, 5, 0, 2, 1]"] ;
82 -> 83 ;
84 [label="X[9] <= 0.25\ngini = 0.678\nsamples = 11\nvalue = [3, 5, 0, 2, 1]"] ;
83 -> 84 ;
85 [label="X[0] <= 42.0\ngini = 0.48\nsamples = 5\nvalue = [3, 2, 0, 0, 0]"] ;
84 -> 85 ;
86 [label="X[2] <= 3.0\ngini = 0.444\nsamples = 3\nvalue = [1, 2, 0, 0, 0]"] ;
85 -> 86 ;
87 [label="gini = 0.0\nsamples = 1\nvalue = [1, 0, 0, 0, 0]"] ;
86 -> 87 ;
88 [label="gini = 0.0\nsamples = 2\nvalue = [0, 2, 0, 0, 0]"] ;
86 -> 88 ;
89 [label="gini = 0.0\nsamples = 2\nvalue = [2, 0, 0, 0, 0]"] ;
85 -> 89 ;
90 [label="X[7] <= 130.0\ngini = 0.611\nsamples = 6\nvalue = [0, 3, 0, 2, 1]"] ;
84 -> 90 ;
91 [label="gini = 0.0\nsamples = 1\nvalue = [0, 0, 0, 0, 1]"] ;
90 -> 91 ;
92 [label="X[3] <= 114.0\ngini = 0.48\nsamples = 5\nvalue = [0, 3, 0, 2, 0]"] ;
90 -> 92 ;
93 [label="gini = 0.0\nsamples = 2\nvalue = [0, 2, 0, 0, 0]"] ;
92 -> 93 ;
94 [label="X[10] <= 1.5\ngini = 0.444\nsamples = 3\nvalue = [0, 1, 0, 2, 0]"] ;
92 -> 94 ;
95 [label="gini = 0.0\nsamples = 1\nvalue = [0, 1, 0, 0, 0]"] ;
94 -> 95 ;
96 [label="gini = 0.0\nsamples = 2\nvalue = [0, 0, 0, 2, 0]"] ;
94 -> 96 ;
97 [label="gini = 0.0\nsamples = 2\nvalue = [2, 0, 0, 0, 0]"] ;
83 -> 97 ;
98 [label="X[0] <= 56.5\ngini = 0.255\nsamples = 20\nvalue = [17, 3, 0, 0, 0]"] ;
82 -> 98 ;
99 [label="gini = 0.0\nsamples = 8\nvalue = [8, 0, 0, 0, 0]"] ;
98 -> 99 ;
100 [label="X[9] <= 0.35\ngini = 0.375\nsamples = 12\nvalue = [9, 3, 0, 0, 0]"] ;
98 -> 100 ;
101 [label="X[4] <= 300.5\ngini = 0.444\nsamples = 3\nvalue = [1, 2, 0, 0, 0]"] ;
100 -> 101 ;
102 [label="gini = 0.0\nsamples = 2\nvalue = [0, 2, 0, 0, 0]"] ;
101 -> 102 ;
103 [label="gini = 0.0\nsamples = 1\nvalue = [1, 0, 0, 0, 0]"] ;
101 -> 103 ;
104 [label="X[0] <= 66.5\ngini = 0.198\nsamples = 9\nvalue = [8, 1, 0, 0, 0]"] ;
100 -> 104 ;
105 [label="gini = 0.0\nsamples = 7\nvalue = [7, 0, 0, 0, 0]"] ;
104 -> 105 ;
106 [label="X[1] <= 0.5\ngini = 0.5\nsamples = 2\nvalue = [1, 1, 0, 0, 0]"] ;
104 -> 106 ;
107 [label="gini = 0.0\nsamples = 1\nvalue = [1, 0, 0, 0, 0]"] ;
106 -> 107 ;
108 [label="gini = 0.0\nsamples = 1\nvalue = [0, 1, 0, 0, 0]"] ;
106 -> 108 ;
109 [label="X[4] <= 282.5\ngini = 0.768\nsamples = 28\nvalue = [5, 9, 6, 6, 2]"] ;
81 -> 109 ;
110 [label="X[9] <= 1.55\ngini = 0.745\nsamples = 20\nvalue = [5, 6, 1, 6, 2]"] ;
109 -> 110 ;
111 [label="X[3] <= 143.0\ngini = 0.628\nsamples = 11\nvalue = [5, 4, 0, 2, 0]"] ;
110 -> 111 ;
112 [label="X[4] <= 240.5\ngini = 0.469\nsamples = 8\nvalue = [5, 3, 0, 0, 0]"] ;
111 -> 112 ;
113 [label="X[4] <= 149.5\ngini = 0.278\nsamples = 6\nvalue = [5, 1, 0, 0, 0]"] ;
112 -> 113 ;
114 [label="gini = 0.0\nsamples = 1\nvalue = [0, 1, 0, 0, 0]"] ;
113 -> 114 ;
115 [label="gini = 0.0\nsamples = 5\nvalue = [5, 0, 0, 0, 0]"] ;
113 -> 115 ;
116 [label="gini = 0.0\nsamples = 2\nvalue = [0, 2, 0, 0, 0]"] ;
112 -> 116 ;
117 [label="X[9] <= 1.2\ngini = 0.444\nsamples = 3\nvalue = [0, 1, 0, 2, 0]"] ;
111 -> 117 ;
118 [label="gini = 0.0\nsamples = 2\nvalue = [0, 0, 0, 2, 0]"] ;
117 -> 118 ;
119 [label="gini = 0.0\nsamples = 1\nvalue = [0, 1, 0, 0, 0]"] ;
117 -> 119 ;
120 [label="X[7] <= 122.5\ngini = 0.691\nsamples = 9\nvalue = [0, 2, 1, 4, 2]"] ;
110 -> 120 ;
121 [label="gini = 0.0\nsamples = 3\nvalue = [0, 0, 0, 3, 0]"] ;
120 -> 121 ;
122 [label="X[3] <= 162.5\ngini = 0.722\nsamples = 6\nvalue = [0, 2, 1, 1, 2]"] ;
120 -> 122 ;
123 [label="X[12] <= 6.5\ngini = 0.64\nsamples = 5\nvalue = [0, 2, 1, 0, 2]"] ;
122 -> 123 ;
124 [label="gini = 0.0\nsamples = 1\nvalue = [0, 0, 1, 0, 0]"] ;
123 -> 124 ;
125 [label="X[9] <= 2.1\ngini = 0.5\nsamples = 4\nvalue = [0, 2, 0, 0, 2]"] ;
123 -> 125 ;
126 [label="gini = 0.0\nsamples = 1\nvalue = [0, 1, 0, 0, 0]"] ;
125 -> 126 ;
127 [label="X[5] <= 0.5\ngini = 0.444\nsamples = 3\nvalue = [0, 1, 0, 0, 2]"] ;
125 -> 127 ;
128 [label="gini = 0.0\nsamples = 2\nvalue = [0, 0, 0, 0, 2]"] ;
127 -> 128 ;
129 [label="gini = 0.0\nsamples = 1\nvalue = [0, 1, 0, 0, 0]"] ;
127 -> 129 ;
130 [label="gini = 0.0\nsamples = 1\nvalue = [0, 0, 0, 1, 0]"] ;
122 -> 130 ;
131 [label="X[7] <= 144.0\ngini = 0.469\nsamples = 8\nvalue = [0, 3, 5, 0, 0]"] ;
109 -> 131 ;
132 [label="X[3] <= 127.5\ngini = 0.278\nsamples = 6\nvalue = [0, 1, 5, 0, 0]"] ;
131 -> 132 ;
133 [label="gini = 0.0\nsamples = 1\nvalue = [0, 1, 0, 0, 0]"] ;
132 -> 133 ;
134 [label="gini = 0.0\nsamples = 5\nvalue = [0, 0, 5, 0, 0]"] ;
132 -> 134 ;
135 [label="gini = 0.0\nsamples = 2\nvalue = [0, 2, 0, 0, 0]"] ;
131 -> 135 ;
136 [label="X[11] <= 1.5\ngini = 0.76\nsamples = 74\nvalue = [6, 17, 22, 21, 8]"] ;
80 -> 136 ;
137 [label="X[3] <= 122.0\ngini = 0.735\nsamples = 36\nvalue = [4, 12, 12, 6, 2]"] ;
136 -> 137 ;
138 [label="X[2] <= 3.5\ngini = 0.66\nsamples = 10\nvalue = [2, 0, 5, 2, 1]"] ;
137 -> 138 ;
139 [label="X[9] <= 1.2\ngini = 0.625\nsamples = 4\nvalue = [2, 0, 0, 1, 1]"] ;
138 -> 139 ;
140 [label="gini = 0.0\nsamples = 2\nvalue = [2, 0, 0, 0, 0]"] ;
139 -> 140 ;
141 [label="X[3] <= 116.0\ngini = 0.5\nsamples = 2\nvalue = [0, 0, 0, 1, 1]"] ;
139 -> 141 ;
142 [label="gini = 0.0\nsamples = 1\nvalue = [0, 0, 0, 0, 1]"] ;
141 -> 142 ;
143 [label="gini = 0.0\nsamples = 1\nvalue = [0, 0, 0, 1, 0]"] ;
141 -> 143 ;
144 [label="X[7] <= 133.0\ngini = 0.278\nsamples = 6\nvalue = [0, 0, 5, 1, 0]"] ;
138 -> 144 ;
145 [label="X[8] <= 0.5\ngini = 0.5\nsamples = 2\nvalue = [0, 0, 1, 1, 0]"] ;
144 -> 145 ;
146 [label="gini = 0.0\nsamples = 1\nvalue = [0, 0, 1, 0, 0]"] ;
145 -> 146 ;
147 [label="gini = 0.0\nsamples = 1\nvalue = [0, 0, 0, 1, 0]"] ;
145 -> 147 ;
148 [label="gini = 0.0\nsamples = 4\nvalue = [0, 0, 4, 0, 0]"] ;
144 -> 148 ;
149 [label="X[0] <= 58.5\ngini = 0.683\nsamples = 26\nvalue = [2, 12, 7, 4, 1]"] ;
137 -> 149 ;
150 [label="X[5] <= 0.5\ngini = 0.587\nsamples = 15\nvalue = [1, 9, 1, 3, 1]"] ;
149 -> 150 ;
151 [label="X[4] <= 286.0\ngini = 0.462\nsamples = 13\nvalue = [0, 9, 0, 3, 1]"] ;
150 -> 151 ;
152 [label="X[4] <= 211.5\ngini = 0.298\nsamples = 11\nvalue = [0, 9, 0, 2, 0]"] ;
151 -> 152 ;
153 [label="X[7] <= 110.0\ngini = 0.444\nsamples = 3\nvalue = [0, 1, 0, 2, 0]"] ;
152 -> 153 ;
154 [label="gini = 0.0\nsamples = 1\nvalue = [0, 1, 0, 0, 0]"] ;
153 -> 154 ;
155 [label="gini = 0.0\nsamples = 2\nvalue = [0, 0, 0, 2, 0]"] ;
153 -> 155 ;
156 [label="gini = 0.0\nsamples = 8\nvalue = [0, 8, 0, 0, 0]"] ;
152 -> 156 ;
157 [label="X[7] <= 138.5\ngini = 0.5\nsamples = 2\nvalue = [0, 0, 0, 1, 1]"] ;
151 -> 157 ;
158 [label="gini = 0.0\nsamples = 1\nvalue = [0, 0, 0, 1, 0]"] ;
157 -> 158 ;
159 [label="gini = 0.0\nsamples = 1\nvalue = [0, 0, 0, 0, 1]"] ;
157 -> 159 ;
160 [label="X[7] <= 157.5\ngini = 0.5\nsamples = 2\nvalue = [1, 0, 1, 0, 0]"] ;
150 -> 160 ;
161 [label="gini = 0.0\nsamples = 1\nvalue = [0, 0, 1, 0, 0]"] ;
160 -> 161 ;
162 [label="gini = 0.0\nsamples = 1\nvalue = [1, 0, 0, 0, 0]"] ;
160 -> 162 ;
163 [label="X[8] <= 0.5\ngini = 0.612\nsamples = 11\nvalue = [1, 3, 6, 1, 0]"] ;
149 -> 163 ;
164 [label="gini = 0.0\nsamples = 5\nvalue = [0, 0, 5, 0, 0]"] ;
163 -> 164 ;
165 [label="X[0] <= 62.5\ngini = 0.667\nsamples = 6\nvalue = [1, 3, 1, 1, 0]"] ;
163 -> 165 ;
166 [label="X[9] <= 0.7\ngini = 0.375\nsamples = 4\nvalue = [0, 3, 1, 0, 0]"] ;
165 -> 166 ;
167 [label="gini = 0.0\nsamples = 1\nvalue = [0, 0, 1, 0, 0]"] ;
166 -> 167 ;
168 [label="gini = 0.0\nsamples = 3\nvalue = [0, 3, 0, 0, 0]"] ;
166 -> 168 ;
169 [label="X[3] <= 144.0\ngini = 0.5\nsamples = 2\nvalue = [1, 0, 0, 1, 0]"] ;
165 -> 169 ;
170 [label="gini = 0.0\nsamples = 1\nvalue = [1, 0, 0, 0, 0]"] ;
169 -> 170 ;
171 [label="gini = 0.0\nsamples = 1\nvalue = [0, 0, 0, 1, 0]"] ;
169 -> 171 ;
172 [label="X[3] <= 133.0\ngini = 0.73\nsamples = 38\nvalue = [2, 5, 10, 15, 6]"] ;
136 -> 172 ;
173 [label="X[0] <= 55.5\ngini = 0.698\nsamples = 18\nvalue = [2, 5, 1, 8, 2]"] ;
172 -> 173 ;
174 [label="X[3] <= 114.0\ngini = 0.32\nsamples = 5\nvalue = [1, 0, 0, 4, 0]"] ;
173 -> 174 ;
175 [label="gini = 0.0\nsamples = 1\nvalue = [1, 0, 0, 0, 0]"] ;
174 -> 175 ;
176 [label="gini = 0.0\nsamples = 4\nvalue = [0, 0, 0, 4, 0]"] ;
174 -> 176 ;
177 [label="X[5] <= 0.5\ngini = 0.722\nsamples = 13\nvalue = [1, 5, 1, 4, 2]"] ;
173 -> 177 ;
178 [label="X[9] <= 2.8\ngini = 0.66\nsamples = 10\nvalue = [1, 5, 0, 2, 2]"] ;
177 -> 178 ;
179 [label="X[3] <= 129.0\ngini = 0.449\nsamples = 7\nvalue = [1, 5, 0, 0, 1]"] ;
178 -> 179 ;
180 [label="gini = 0.0\nsamples = 5\nvalue = [0, 5, 0, 0, 0]"] ;
179 -> 180 ;
181 [label="X[11] <= 2.5\ngini = 0.5\nsamples = 2\nvalue = [1, 0, 0, 0, 1]"] ;
179 -> 181 ;
182 [label="gini = 0.0\nsamples = 1\nvalue = [0, 0, 0, 0, 1]"] ;
181 -> 182 ;
183 [label="gini = 0.0\nsamples = 1\nvalue = [1, 0, 0, 0, 0]"] ;
181 -> 183 ;
184 [label="X[10] <= 2.5\ngini = 0.444\nsamples = 3\nvalue = [0, 0, 0, 2, 1]"] ;
178 -> 184 ;
185 [label="gini = 0.0\nsamples = 2\nvalue = [0, 0, 0, 2, 0]"] ;
184 -> 185 ;
186 [label="gini = 0.0\nsamples = 1\nvalue = [0, 0, 0, 0, 1]"] ;
184 -> 186 ;
187 [label="X[4] <= 242.0\ngini = 0.444\nsamples = 3\nvalue = [0, 0, 1, 2, 0]"] ;
177 -> 187 ;
188 [label="gini = 0.0\nsamples = 1\nvalue = [0, 0, 1, 0, 0]"] ;
187 -> 188 ;
189 [label="gini = 0.0\nsamples = 2\nvalue = [0, 0, 0, 2, 0]"] ;
187 -> 189 ;
190 [label="X[3] <= 147.5\ngini = 0.635\nsamples = 20\nvalue = [0, 0, 9, 7, 4]"] ;
172 -> 190 ;
191 [label="X[11] <= 2.5\ngini = 0.46\nsamples = 10\nvalue = [0, 0, 7, 2, 1]"] ;
190 -> 191 ;
192 [label="X[12] <= 6.5\ngini = 0.245\nsamples = 7\nvalue = [0, 0, 6, 0, 1]"] ;
191 -> 192 ;
193 [label="gini = 0.0\nsamples = 1\nvalue = [0, 0, 0, 0, 1]"] ;
192 -> 193 ;
194 [label="gini = 0.0\nsamples = 6\nvalue = [0, 0, 6, 0, 0]"] ;
192 -> 194 ;
195 [label="X[0] <= 60.0\ngini = 0.444\nsamples = 3\nvalue = [0, 0, 1, 2, 0]"] ;
191 -> 195 ;
196 [label="gini = 0.0\nsamples = 2\nvalue = [0, 0, 0, 2, 0]"] ;
195 -> 196 ;
197 [label="gini = 0.0\nsamples = 1\nvalue = [0, 0, 1, 0, 0]"] ;
195 -> 197 ;
198 [label="X[4] <= 288.5\ngini = 0.62\nsamples = 10\nvalue = [0, 0, 2, 5, 3]"] ;
190 -> 198 ;
199 [label="X[12] <= 6.5\ngini = 0.531\nsamples = 8\nvalue = [0, 0, 2, 5, 1]"] ;
198 -> 199 ;
200 [label="X[8] <= 0.5\ngini = 0.444\nsamples = 3\nvalue = [0, 0, 2, 1, 0]"] ;
199 -> 200 ;
201 [label="gini = 0.0\nsamples = 1\nvalue = [0, 0, 0, 1, 0]"] ;
200 -> 201 ;
202 [label="gini = 0.0\nsamples = 2\nvalue = [0, 0, 2, 0, 0]"] ;
200 -> 202 ;
203 [label="X[7] <= 123.5\ngini = 0.32\nsamples = 5\nvalue = [0, 0, 0, 4, 1]"] ;
199 -> 203 ;
204 [label="gini = 0.0\nsamples = 1\nvalue = [0, 0, 0, 0, 1]"] ;
203 -> 204 ;
205 [label="gini = 0.0\nsamples = 4\nvalue = [0, 0, 0, 4, 0]"] ;
203 -> 205 ;
206 [label="gini = 0.0\nsamples = 2\nvalue = [0, 0, 0, 0, 2]"] ;
198 -> 206 ;
}
